	1	2	3	4	5	6	7	8	9	10	11	12	13	14	15	16	17	18	19	20	21	22	23	24	25	26	27	28	29	30	31	32	33	34	35	36	37	38	39	40	41	42	43	44	45	46	47	48	49	50	51	52	53	54	55	56	57	58	59	60	61	62	63	64	65	66	67	68	69	70	71	72	73	74	75	76	77	78	79	80	81	82	83	84	85	86	87	88	89	90	91	92	93	94	95	96	97	98	99	100	101	102	103	104	105	106	107	108	109	110	111	112	113	114	115	116	117	118	119	120	121	122	123	124	125	126	127
AURKB	0.07529391	-0.07427589	-0.12823786	-0.10496424	-0.095258676	-0.08425718	-0.07872049	-0.0006672533	-0.11005527	-0.12209202	-0.04521128	-0.051238336	-0.097097516	-0.095670596	0.0944621	0.046239305	-0.047093134	0.10814698	0.08875556	-0.13225849	-0.06893046	0.06078776	0.042755697	0.0035299663	-0.011271872	0.07930027	0.11538694	0.005985577	-0.08418988	-0.0016582602	0.06476742	-0.08993334	0.055924617	-0.08217737	0.09376734	-0.10773859	0.095414706	-0.03259104	0.10905653	-0.09191951	0.0062666493	0.12673387	0.0926608	0.12037207	-0.112794936	0.097180605	0.0053697987	-0.00191744	0.0073272767	0.07780812	0.005788944	-0.13199036	-0.102494076	-0.09118831	-0.0544	-0.08229227	-0.08599291	-0.046127286	0.09138082	-0.09303585	0.116577774	-0.000414594	-0.08100574	0.1347298	0.12017843	0.1650252	-0.027428642	0.0739572	-0.08876823	0.054955903	-0.06656123	0.111526646	0.06082985	0.14198382	0.08483106	0.002456941	0.09382862	0.073610224	-0.10093004	0.021393634	-0.039770413	-0.10166664	0.060388878	0.116434515	0.10112933	0.094535746	0.08201996	0.111456014	-0.1084718	-0.09449486	-0.03875632	0.10152699	0.04280591	0.12935148	0.09721457	-0.11500543	0.01646526	-0.093890786	0.11548149	0.08870589	-0.048412547	-0.11696788	-0.057387985	0.12876646	-0.13262257	-0.026028614	-0.11152286	-0.049240626	-0.11909934	-0.115977414	-0.09628468	-0.10295571	-0.12554073	-0.09352391	0.04547068	0.039596386	-0.109327696	0.105207846	-0.10664788	0.09241138	0.018694852	0.012711121	0.12101548	0.10487721	-0.09744541	0.102071226	-0.09287801	0.06673331
BAZ1B	0.036193606	-0.085908994	0.08618093	-0.007982243	-0.07231523	0.00069721387	0.059442453	0.028743386	0.061707206	0.07013665	0.090805374	-0.063949615	0.06380108	-0.043847054	-0.12372875	-0.11729132	0.123786576	-0.031494007	-0.07996624	0.026547175	-0.11830756	-0.07670762	-0.10908368	0.1424928	-0.13224666	0.109643236	-0.047582597	-0.15146616	0.059901122	0.14154978	0.0795209	0.12596229	0.06665387	-0.082068175	-0.10891993	-0.01779323	-0.06729925	0.14693129	0.021712882	0.0851207	0.12501372	-0.020636344	-0.060431004	-0.042387985	0.0785598	-0.08461871	0.11067502	-0.14771846	0.095248364	-0.099762775	-0.14309476	0.009476888	-0.0052688294	-0.06722347	0.0759513	0.121677116	0.05443855	-0.116638355	-0.09791659	0.033902526	-0.09431554	-0.16049406	0.08551178	-0.045193765	0.009778141	-0.03680381	0.11421273	-0.14503439	0.06739509	0.10855056	-0.08410838	0.0866655	-0.087354496	-0.0026791561	-0.025815824	-0.1432721	-0.05727941	-0.07715654	-0.036122777	0.1457586	0.1483859	0.08735408	-0.04892385	0.00329093	0.020776905	-0.026829831	-0.02767971	0.08363006	0.030813402	-0.02625217	-0.11277418	0.0030378145	-0.14757743	-0.043460857	-0.028059106	0.054268736	0.119663656	0.11020378	-0.038874272	-0.10217131	0.13785523	-0.01531976	0.070013165	-0.019777806	-0.013584182	-0.16248031	0.08049473	0.15466231	0.04785236	0.010732561	0.0757844	0.044117615	-0.06360408	0.082536586	0.1398605	-0.09559538	0.070024304	0.013791488	0.049908128	-0.07224868	0.16224088	0.13207938	-0.05287094	-0.06805312	-0.1362344	-0.03610184	0.06229973	-0.11332801
BRD7	0.06269222	-0.05925533	0.0726524	-0.015451111	-0.05191034	0.0143542625	0.041214824	0.07383955	0.026705187	0.06106378	0.07397727	-0.114253104	0.03120019	-0.025906157	-0.14683813	-0.15336597	0.09901159	-0.014149373	-0.07650747	0.032149196	-0.14380744	-0.10901488	-0.13810806	0.1344065	-0.1173491	0.118219346	-0.0486997	-0.15071496	0.06877174	0.12630367	0.0764933	0.10478015	0.06764106	-0.08265542	-0.09549038	0.051923886	-0.050717443	0.12144129	0.031868327	0.09251257	0.12794614	0.019326407	-0.0806739	-0.017095061	0.08777904	-0.059034906	0.08770713	-0.14972359	0.099231154	-0.09011869	-0.118849665	0.029047837	-0.0070072743	-0.061985858	0.039719436	0.12947017	0.06120177	-0.13617013	-0.07728969	0.033314098	-0.09476534	-0.15133664	0.06991229	-0.035474394	0.022141889	-0.014984241	0.14005402	-0.14312647	0.054720607	0.12419473	-0.08977923	0.059628256	-0.08849096	-0.0384398	-0.028100003	-0.13350971	-0.0935712	-0.109809324	-0.062460124	0.1592358	0.121666186	0.09888189	-0.035086002	0.014311899	0.034689892	-0.018365055	-0.008719602	0.051568434	-0.0012982672	-0.07266264	-0.08536458	0.015035744	-0.13971367	-0.01854481	-0.048741724	0.06708718	0.13730946	0.07768437	-0.031036336	-0.07282135	0.08162775	-0.0039646197	0.11042202	-0.030514508	0.0017831061	-0.16149406	0.069225	0.14187795	0.097421944	-0.021400614	0.079462975	-0.0039601065	-0.09099208	0.112303756	0.116185054	-0.020464955	0.043466635	0.02866515	0.02587439	-0.10440728	0.18271928	0.107353	-0.07431658	-0.10214822	-0.17285396	-0.06496203	0.064679645	-0.08758409
CBX3	-0.048429288	0.05966502	-0.14510906	0.011263486	0.08430037	0.036844358	-0.046655424	-0.12651035	-0.11742355	-0.040067807	-0.037156332	0.055892814	-0.054239005	0.041397333	0.11619629	0.08372259	-0.08395515	-0.004642797	0.009675871	-0.02206037	0.11678409	0.012865314	0.10086639	-0.11986473	0.17478347	-0.07760909	0.064306006	0.1175769	-0.042045403	-0.14540203	-0.10281291	-0.14392775	-0.12070406	0.083765715	0.12829098	0.042710822	0.06418259	-0.12425007	-0.0052383244	-0.09964669	-0.12453275	0.08154056	0.047144834	0.077725485	-0.0787333	0.046623304	-0.15798068	0.15191561	-0.07901831	0.13512287	0.14709277	-0.020869728	0.024179745	0.073837124	-0.048062902	-0.11902049	-0.05257534	0.13768552	0.051021535	-0.026557999	0.17368063	0.106638834	-0.096527494	0.06445669	-0.03497583	0.0712276	-0.120096065	0.12054957	-0.028909788	-0.09094835	0.10428762	-0.062971115	0.04656658	0.043787446	-0.014521974	0.11157363	0.041586597	0.036026556	0.012611835	-0.11401039	-0.103631616	-0.102397114	0.16317886	0.010225806	-0.028713344	0.00264763	-0.0010196732	-0.07250528	-0.033892725	0.017112417	0.13978958	-0.0063930573	0.15958618	0.052550487	0.06079482	-0.0682037	-0.09533987	-0.129353	0.06945988	0.09623748	-0.105573826	0.018436363	-0.059097577	0.029895008	0.011064361	0.13752459	-0.09323807	-0.1746917	-0.03252418	0.020985229	-0.054407414	-0.0636236	-0.00089804886	-0.10112035	-0.14173481	0.058707982	-0.061521985	-0.0018675538	-0.07717484	0.08151769	-0.14923175	-0.15832235	0.03926152	0.06709365	0.06299882	0.041150298	-0.029676894	0.06896006
CHD1	0.08368148	-0.05724596	0.101363085	-0.02799609	-0.07345072	0.012732955	0.06251151	0.058291703	0.06281071	0.047071066	0.10642342	-0.08740033	0.026868653	-0.02039921	-0.114977434	-0.097676985	0.12169645	-0.008504379	-0.08692994	0.019814413	-0.10343125	-0.088167265	-0.06276382	0.14249225	-0.08703736	0.14243078	-0.015124253	-0.13401437	0.02890981	0.118020594	0.103292435	0.11213169	0.09668897	-0.11743459	-0.06701699	-0.0068599624	-0.053616602	0.14401421	0.01589654	0.068396956	0.17996675	-0.1279865	-0.06281307	-0.044532385	0.11270872	-0.082575925	0.07445272	-0.14074613	0.0692462	-0.0746834	-0.10264896	0.06982357	-0.031755965	-0.07386136	0.030000124	0.13114558	0.074913196	-0.12573777	-0.083634734	0.030001951	-0.12911196	-0.134462	0.0840403	-0.04761973	0.014085514	-0.040747993	0.14213066	-0.14334615	0.07683827	0.10261193	-0.09241066	0.0728364	-0.073043056	-0.019950679	-0.04512706	-0.13513976	-0.07401735	-0.06749695	-0.0840662	0.15878837	0.1325614	0.11450637	-0.06781488	0.02728474	0.03312095	0.009783852	-0.017937718	0.084584385	0.013770412	-0.045367874	-0.086131595	-0.0051488625	-0.12326282	-0.06127945	-0.011255113	0.09161362	0.10603009	0.09829042	-0.037081346	-0.13652343	0.14070442	-0.0080651315	0.10002314	-0.02108654	-0.021369588	-0.12988839	0.07318865	0.16360338	0.054840762	0.00066030095	0.083202876	0.037802845	-0.058326073	0.09063409	0.10625296	-0.09662429	0.047619708	0.016763153	0.07492923	-0.07065545	0.14333385	0.13598013	-0.017699629	-0.0622983	-0.1183659	-0.05485951	0.043500807	-0.15798308
CHD4	-0.0006053614	0.1293284	-0.09936611	0.0036065246	0.06530488	0.0021086878	-0.08934871	-0.06309728	-0.096136734	0.062216084	-0.0963742	-0.02976163	-0.045822944	0.105075	0.036604006	0.076156504	-0.128224	-0.00043903125	0.0076804045	-0.004583468	0.10080146	0.075750105	0.109444536	-0.1127171	0.11012981	-0.1238474	0.043244492	0.12766661	-0.0776699	-0.17593934	-0.078221336	-0.11906849	-0.10000441	0.16450085	0.09762131	0.06834473	0.09142822	-0.13249952	0.02510884	-0.04818394	-0.07257196	0.08293832	0.031442374	0.076018706	-0.03037777	0.078252085	-0.1706351	0.13041902	-0.11092044	0.14375706	0.11702391	-0.029178912	0.006494042	0.034577556	-0.1393998	-0.11020522	-0.08422199	0.1512244	0.003870713	-0.037389144	0.11553838	0.1422942	-0.119151905	0.023625515	-0.05243714	0.06205729	-0.13134567	0.08974318	-0.03580317	-0.15592021	0.07831129	-0.08041878	0.060851727	0.014873599	-0.010003004	0.10892466	0.05762092	-0.041357465	0.02487476	-0.08204659	-0.11339403	-0.08960775	0.174162	-0.0055323653	-0.016604537	0.00677178	0.050292246	-0.082108	0.00042576186	-0.029324781	0.058634866	0.024246776	0.11987074	0.08712721	0.084989086	-0.1041059	-0.123383805	-0.0939097	0.049588095	0.11143855	-0.10669929	-0.00466809	-0.10942969	0.03408054	0.060677916	0.13962474	-0.06098627	-0.12559853	-0.012983535	0.023468599	-0.048746444	-0.056063727	0.039431226	-0.08562294	-0.11480801	0.13877365	-0.07320679	0.025732085	-0.09267847	0.07412277	-0.14921619	-0.14811839	-0.009176914	0.05700308	0.08788761	0.043091305	-0.064430244	0.045811795
DNMT1	-0.093738556	0.053870413	0.05146834	0.09429794	0.101528786	0.09904876	0.07790157	0.022225434	0.03730149	0.12508115	0.06381344	-0.03527826	0.054779273	0.06568481	-0.10099064	-0.16745695	0.058171272	-0.11279718	-0.12787676	0.13511093	0.013768653	-0.07112267	-0.072489426	0.0064509893	0.016586574	-0.07098773	-0.11466967	-0.051909696	0.14989224	-0.023931563	-0.099972986	0.038399063	-0.1119955	0.07771314	-0.06245619	0.17778821	-0.0749263	-0.011031741	-0.084523976	0.08072272	-0.05265391	0.025457064	-0.13840832	-0.035983052	0.09613247	-0.07609282	-0.11130657	0.0010744879	-0.007384141	-0.04352345	-0.014359504	0.084045224	0.13369508	0.0667591	0.06256815	0.08159388	0.09375192	0.008081816	-0.11758039	0.12033738	-0.045872636	-0.026238536	0.04127266	-0.12772584	-0.11569021	-0.0926651	0.044361513	-0.058982693	0.08322829	-0.053751078	0.05941327	-0.07162252	-0.07826867	-0.14260457	-0.123770975	-0.050706062	-0.14811695	-0.1480901	0.03205335	0.020777456	0.04091715	0.04122516	0.0130762	-0.10642153	-0.10841196	-0.11399299	-0.10611301	-0.11470408	0.08323653	0.05194825	0.093609944	-0.09932701	-0.030475894	-0.030622266	-0.14383109	0.10387151	0.05476255	0.027646579	-0.09124676	-0.04101064	-0.05758475	0.13075317	0.10306301	-0.09138204	0.11788575	-0.019814353	0.09702132	0.01497405	0.18594548	0.10091346	0.11188635	0.0069722137	0.042012166	0.13100328	-0.04853286	0.047738034	0.09333826	-0.053529803	0.011754944	-0.14213264	0.044128217	-0.039154984	-0.17030203	-0.14942808	0.031586442	-0.14248489	0.11114557	-0.028567037
DNMT3A	-0.05019029	0.10008208	-0.06848738	0.03120487	0.0789375	0.0027442246	-0.11810012	-0.103090994	-0.09723935	-0.047579564	-0.08429249	0.08791996	-0.013762139	0.06999506	0.15375555	0.14307332	-0.1397941	0.07122505	0.060115926	-0.02662562	0.094418734	0.055317886	0.11456596	-0.17614965	0.12306992	-0.119645916	-0.0008511948	0.13303317	-0.06698804	-0.115816034	-0.092733845	-0.1004918	-0.06689638	0.12007334	0.054042876	-0.024519848	0.06127865	-0.15665293	-0.024976391	-0.006046413	-0.13721831	0.08681051	0.08885966	0.048701	-0.1268058	0.076373145	-0.080529824	0.13530383	-0.060836	0.12067093	0.097032964	0.011210857	0.007219357	0.0928096	-0.053128064	-0.11095466	-0.0488771	0.13031343	0.10504156	-0.059751906	0.081805855	0.14371227	-0.0708461	0.054315813	-0.01840231	0.03838497	-0.15558268	0.101686664	-0.07135013	-0.054929364	0.1241692	-0.094022416	0.077179186	-0.0053458447	0.0062621036	0.11625	0.07929756	0.07900465	0.049977418	-0.14254846	-0.124790296	-0.07385296	0.10068938	-0.010061304	-0.047659468	0.01327324	0.019675352	-0.062341496	0.0029111037	0.007187948	0.12112209	-0.034792062	0.13142844	0.052227225	0.057668354	-0.10060142	-0.11985083	-0.049823865	-0.010591903	0.08350483	-0.04273095	-0.024097858	-0.0894603	0.033372797	0.033300705	0.14931774	-0.111121185	-0.13643798	-0.06371175	0.0244094	-0.09072204	-0.014982117	0.0717164	-0.12826239	-0.13323769	0.1419423	-0.07033072	-0.04354146	-0.03984753	0.043119576	-0.12466325	-0.11367663	0.050582077	0.0801521	0.063692756	0.088117175	-0.019594416	0.13210164
DNMT3B	-0.08333369	0.03578173	0.06573511	0.09826808	0.111888275	0.11739591	0.11184484	-0.09968526	0.09591358	0.11905289	0.089121975	0.070209496	0.08776972	0.10260069	-0.06990272	-0.0344986	0.055336338	-0.14120875	-0.09972474	0.13498004	0.08964946	-0.08203468	-0.058961473	-0.025801292	0.023797201	-0.06417545	-0.09286268	0.0033731337	0.103419974	-0.014054592	-0.09144975	0.08218488	-0.09983383	0.054321833	-0.038843468	0.12163103	-0.09009478	0.042669352	-0.124764726	0.071648315	-0.029434217	-0.13028936	-0.11456972	-0.13165352	0.10677301	-0.09296185	-0.030202806	0.015732907	-0.038139284	-0.037603308	-0.0043565426	0.1588611	0.08211978	0.103081346	0.10252561	0.054807916	0.08019489	0.056776047	-0.121229015	0.07952569	-0.087942995	-0.03401705	0.0837877	-0.093084365	-0.12217082	-0.14010218	0.02300275	-0.07779679	0.114344515	-0.0545419	0.09497078	-0.08935629	-0.05760011	-0.0749706	-0.08241116	-0.005392549	-0.07399947	-0.041347586	0.09642266	-0.025973378	0.044131678	0.10163064	-0.017793909	-0.0998397	-0.052256085	-0.08708721	-0.09750341	-0.108439334	0.06406006	0.08787018	0.073867515	-0.13518755	-0.0037540102	-0.1357225	-0.05065968	0.11464356	-0.010689192	0.06870488	-0.07128247	-0.15132706	0.09787895	0.12789237	0.041245297	-0.13689843	0.11613003	-0.029671432	0.07988896	0.02130357	0.081555486	0.13296351	0.0825226	0.07642668	0.14454855	0.06308682	-0.080677874	-0.16610196	0.11014644	-0.098175704	0.103114754	-0.042157628	-0.0060233776	-0.047775235	-0.09874991	-0.07657197	0.06400601	-0.06216719	0.1474273	-0.07974419
EHMT1	0.07969552	-0.04584077	-0.13120387	-0.09868717	-0.07246512	-0.035301562	-0.100707784	0.019817643	-0.13409747	-0.2021508	-0.023560658	-0.054875597	-0.11438284	-0.061913915	0.11800625	0.02915065	0.002997283	0.12618151	0.02060151	-0.11861466	-0.07261713	-0.0077474094	0.096364036	0.017028192	0.06553946	0.1254996	0.16723748	0.007867909	-0.083842464	-0.0011207146	0.06512732	-0.12773338	0.0705543	-0.11428771	0.13913245	-0.09234336	0.09810165	-0.04009394	0.11529009	-0.11734546	0.01551673	0.058928326	0.116528146	0.112368	-0.09394135	0.056417882	-0.03906745	-0.006853515	0.014332326	0.116095245	0.08215825	-0.06436721	-0.076512665	-0.068522274	-0.05313721	-0.05727937	-0.046584796	-0.052964382	0.12965877	-0.08102501	0.11320862	0.03668295	-0.08308357	0.12518203	0.11395118	0.15328877	0.01766936	0.06033507	-0.044722583	0.055983845	-0.06452655	0.08320714	0.0673185	0.116895795	0.021496885	0.0022637164	0.038432762	0.07531672	-0.11361449	0.037947223	-0.024729526	-0.10306282	0.063666366	0.13683556	0.08419951	0.124694236	0.056685694	0.10629794	-0.11046147	-0.08361171	0.06997126	0.0842418	0.07329375	0.103756115	0.08083883	-0.063758984	0.00031633	-0.11377725	0.11123586	0.08063776	-0.045673348	-0.08830738	-0.02038722	0.13476412	-0.13701297	0.028705548	-0.12808096	-0.07329664	-0.10399978	-0.096600115	-0.049466822	-0.11837145	-0.17046884	-0.10318011	0.009445662	0.07906421	-0.1428139	0.09068443	-0.08162323	0.07168395	-0.0025835459	0.016033882	0.13323274	0.082395084	-0.083544776	0.062173493	-0.09977531	0.046767272
HDAC1	0.11240821	-0.01987328	-0.017922418	-0.11315437	-0.12300383	-0.10529269	-0.13754246	0.038776677	-0.046253465	-0.094546996	-0.11062057	-0.055712335	-0.05099582	-0.05555167	0.07677203	0.13229284	-0.11241948	0.09375579	0.13275068	-0.13117637	-0.041629296	0.11551567	0.04533928	-0.004140674	-0.050628815	0.03948335	0.0705237	0.07076354	-0.11211104	0.021392716	0.09282366	-0.021169206	0.11901526	-0.083315305	0.06013195	-0.16227186	0.09724081	-0.04413821	0.096591786	-0.027623307	0.006189934	0.02155713	0.09858488	0.08451567	-0.064493276	0.12440054	0.05673377	-0.011930093	-0.005902718	0.03617399	-0.031148305	-0.10791741	-0.1395123	-0.10611373	-0.09768495	-0.06877971	-0.10647317	-0.025735721	0.093278274	-0.10987193	0.0076139313	0.043274187	-0.07515186	0.120161034	0.12031883	0.0920922	-0.060883157	0.038732227	-0.12262681	0.07812273	-0.09127585	0.07193022	0.08313575	0.13860554	0.13179056	0.020407256	0.15836158	0.049003337	-0.043681506	0.03932131	-0.059216518	-0.036676664	-0.012130294	0.09226077	0.12447324	0.10923592	0.10724935	0.09329389	-0.03282378	-0.10791914	-0.12423392	0.10858679	0.046042185	0.11422185	0.11393302	-0.113462046	-0.015168011	0.0053482526	0.047936372	0.082121074	0.012409069	-0.15154704	-0.07119823	0.1342137	-0.0881037	-0.0056609204	-0.08577888	-0.018837007	-0.16261302	-0.094914645	-0.10937512	-0.034080923	-0.047278557	-0.087659754	0.04542694	0.1137487	-0.13465703	0.0992469	-0.06870355	0.08397397	-0.010486896	0.04066246	0.12506422	0.11478934	-0.10583619	0.12932673	-0.09786875	0.057716716
HDAC2	0.13186689	0.0058850506	-0.019896971	-0.16663481	-0.09262665	-0.16635555	-0.046739586	0.15077868	-0.09201563	-0.070746176	-0.096332334	-0.15093194	-0.09479078	-0.1645048	0.07700576	0.045193393	-0.060699284	0.06984435	0.0607091	-0.12849692	0.01865053	0.15857452	0.08620697	0.037287887	-0.044769455	0.03833244	0.07519204	0.028498596	-0.037254006	-0.0781898	0.14411172	-0.048075	0.08075569	-0.050842836	0.12997016	-0.09468678	0.098843895	-0.0683229	0.14132498	-0.14393352	-0.006058248	-0.040430646	0.063512914	0.12477161	-0.050627116	0.118860304	-0.031735484	0.013798712	-0.16076331	0.032723248	0.035399877	-0.017808886	-0.108857565	-0.13990699	-0.11101821	-0.07463113	-0.13504198	-0.03403179	0.071961	-0.10472263	0.0013156352	0.060400542	-0.10191982	0.10131671	0.09217386	0.06908931	-0.016017942	0.117702186	-0.16374251	-0.032538198	-0.0854383	0.08793028	0.09055797	0.08849016	0.08862515	0.020787448	0.11233809	0.009078778	-0.12953992	0.025160315	-0.0790058	-0.094476245	0.0040463503	0.059175596	0.044905953	0.13496758	0.11708869	0.05193989	-0.030796187	-0.106176384	-0.13889685	0.11364595	0.031404223	0.11615557	0.048414215	-0.0712453	0.103218116	-0.09592865	0.07119092	0.08263929	-0.10719998	-0.09164777	-0.052846994	0.13366349	-0.08635419	0.030030364	-0.03528341	-0.030380646	-0.039783284	-0.1270751	-0.091583	-0.073887005	-0.012950417	-0.007727743	0.0097613195	0.055936452	-0.053014953	0.14327353	-0.08325327	0.077489346	0.00824571	0.015039322	0.110746205	0.1043706	-0.0071305777	0.0092344405	-0.092482954	0.023425264
ING1	-0.05791522	-0.2453577	0.06924181	-0.00024317348	-0.104897805	0.015679913	0.06085354	0.05424809	0.081200786	-0.036097042	0.1253138	0.009776585	0.10462865	-0.14905186	-0.021714378	-0.12547424	0.120938495	0.007831238	0.017111138	-0.0026957495	-0.08707037	0.027834136	-0.12677738	0.1323495	-0.08646938	0.11248663	-0.08607046	-0.15778375	0.10356311	0.16914071	0.034329385	0.1101395	0.039495356	-0.09698339	-0.10523812	-0.11237817	-0.10068379	0.07269586	-0.029906133	0.05590908	0.0065106004	-0.0037453976	-0.058953658	-0.003598386	0.018011194	-0.037335463	0.088529415	-0.08817712	0.14592014	-0.16038395	-0.1981485	-0.03233255	0.051382467	-0.046399176	0.08356393	0.08490831	0.09033788	-0.13856693	-0.05973622	0.09184691	-0.070307836	-0.12372691	0.11502346	-0.0631462	0.010967767	-0.018553285	0.06654074	-0.047230434	0.03446368	0.16166009	-0.12351058	0.14157647	-0.09777882	-0.006589319	-0.040443547	-0.15982077	-0.05444428	-0.08946784	0.0038505269	0.09902703	0.10327523	0.01791705	-0.12586853	-0.027785491	-0.073605455	-0.042541195	-0.09312301	0.08266781	0.09731895	0.043400902	-0.033159554	-0.02099613	-0.057403207	-0.003787094	-0.13279948	0.07486615	0.12172028	0.093753085	-0.0946934	-0.06362653	0.06576151	-0.0028095206	0.13142465	0.04421043	-0.058377042	-0.11060198	0.08170235	0.110771544	-0.009632846	-0.020636663	0.06471715	0.09972881	-0.015645444	0.07820103	0.12088159	-0.016668446	0.052956942	-0.008475477	0.04973728	-0.10208432	0.11940726	0.13531876	0.044478618	-0.07573163	-0.070225224	-0.08522047	0.003926601	-0.06715527
KMT2A	0.06767915	-0.062878184	-0.090195075	-0.123891376	-0.1098244	-0.07782712	-0.05936514	0.011938882	-0.07117832	-0.11272216	-0.04371734	-0.029946161	-0.10633477	-0.110087186	0.11546621	0.07664355	-0.059206046	0.07924735	0.09623851	-0.10984407	-0.02393679	0.12570459	0.05458891	0.015720041	-0.068472885	0.04994142	0.112499446	0.030625293	-0.06627431	-0.008631616	0.104121424	-0.079962954	0.08386539	-0.07320216	0.119175345	-0.15231545	0.10054634	-0.027189706	0.10503117	-0.11785525	-0.04215263	-0.048425913	0.095945515	0.0651284	-0.09284157	0.10596928	0.03539744	-0.020779787	-0.03213815	0.05564546	0.03444277	-0.092216924	-0.12127799	-0.08447788	-0.05349724	-0.10465545	-0.10378436	-0.03800575	0.08512616	-0.11026919	0.046720482	0.0046260743	-0.0783914	0.14464207	0.11965429	0.09548575	-0.042518053	0.076115385	-0.093906686	0.009113463	-0.0523824	0.117572546	0.12582338	0.16171922	0.12738124	0.040049672	0.10265539	0.12891151	-0.039324854	0.0067926045	-0.04593176	-0.109354466	-0.051626142	0.12126194	0.11198731	0.14246106	0.07808542	0.13120069	-0.07644452	-0.0858001	-0.041901484	0.07113868	0.08467192	0.08626255	0.085189	-0.08387831	0.0040853736	-0.0729315	0.09203037	0.04028335	0.0021140075	-0.107676074	-0.10206896	0.120218284	-0.15483107	-0.016866926	-0.09001719	-0.058217544	-0.18823914	-0.10923123	-0.089541376	-0.07780241	-0.07961388	-0.11318865	0.0314781	-0.03412351	-0.09622284	0.10761794	-0.066970445	0.14517924	-0.0029725027	0.024838705	0.1169875	0.13442169	-0.016414221	0.11260541	-0.08913385	0.055725764
KMT2C	-0.14358208	-0.067060426	0.056179743	0.12210307	0.09059382	0.11153888	0.10192384	-0.08272705	0.113527425	0.08838569	0.09414381	0.10983739	0.12958826	0.04240703	-0.035987873	-0.049701724	0.06758492	-0.12603973	-0.052277643	0.11200429	0.0866697	-0.040780947	-0.07763275	-0.017872265	0.046017114	-0.07745662	-0.12325819	-0.02332535	0.11529031	0.016282132	-0.12689015	0.08017554	-0.112420045	0.06883998	-0.08358305	0.06664767	-0.11743544	0.02730038	-0.13487111	0.08394521	-0.07262094	-0.03972212	-0.10863603	-0.08981039	0.060684904	-0.090686776	-0.023341713	0.049306065	0.031500775	-0.08491335	-0.06697095	0.09258671	0.13295686	0.10007845	0.10377813	0.047931645	0.09664397	0.054807328	-0.1040892	0.12595363	-0.04074037	-0.015783083	0.104953445	-0.12027092	-0.12222918	-0.11543208	-0.01434986	-0.030489054	0.09887003	-0.01678384	0.06030611	-0.067132	-0.108632036	-0.08198537	-0.09089166	-0.024179801	-0.073443025	-0.08533218	0.12938966	-0.037445575	0.03651572	0.06629762	-0.015757933	-0.12703899	-0.12943183	-0.1263894	-0.12556419	-0.11394356	0.11393888	0.1438048	0.07240469	-0.124468274	-0.0024372884	-0.09645409	-0.11239253	0.09934215	-0.023223909	0.073770195	-0.11678299	-0.06972346	0.041849807	0.124479756	0.0823583	-0.094444156	0.10946778	-0.0039775893	0.08240479	0.031952396	0.06535627	0.11721447	0.087438874	0.11895275	0.13541949	0.07959053	-0.044701036	-0.06284672	0.094034836	-0.111647725	0.09565546	-0.0900063	-0.03555734	-0.027441988	-0.06541395	-0.09198696	0.060372867	-0.10209875	0.104750164	-0.05930437
KMT2D	-0.10238507	0.0071536177	0.07296236	0.10394678	0.106094256	0.13432702	0.09164265	-0.13188271	0.06750494	0.122782566	0.09477729	0.09670312	0.10761245	0.07870171	-0.044112112	-0.027439952	0.058235325	-0.13337758	-0.145401	0.109282166	0.09422929	-0.10844709	-0.03621145	-0.0063129724	0.09343267	-0.04723218	-0.096483104	-0.01326931	0.059091404	0.008595279	-0.09327898	0.06648824	-0.10837754	0.0637988	-0.06999403	0.08760243	-0.1070887	0.048846416	-0.100052096	0.09353276	0.00048041908	-0.072626635	-0.08982499	-0.09369831	0.093143575	-0.119610995	-0.04285826	0.028715786	0.02002876	-0.04094875	-0.015269434	0.12371937	0.110486574	0.11775685	0.08407915	0.075983204	0.08334097	0.07610974	-0.117608495	0.098446466	-0.0037227836	-0.037159182	0.09367807	-0.09571017	-0.13245308	-0.12411495	-0.00012564767	-0.08332795	0.10881526	-0.024882894	0.09320661	-0.099388964	-0.11800644	-0.07884981	-0.12165989	-0.034476597	-0.07585284	-0.08460845	0.10056523	-0.010329424	0.074287295	0.09710962	0.035164267	-0.12005513	-0.111421585	-0.119220816	-0.106527336	-0.09532349	0.11817223	0.11440755	0.07351073	-0.113131136	-0.01408598	-0.12051523	-0.06139709	0.09401765	-0.024577731	0.07412745	-0.10893012	-0.07878408	0.120851025	0.11227133	0.06671682	-0.10429084	0.12040631	0.019701324	0.0837925	0.034148905	0.08276752	0.12773171	0.11438789	0.10912539	0.06424133	0.039511263	-0.058531698	-0.07797466	0.09349414	-0.12525715	0.11816702	-0.06251127	-0.039048884	-0.048312325	-0.07794523	-0.0815995	0.035603587	-0.080954276	0.11424348	-0.11039922
MORF4L1	0.06122657	-0.025254434	-0.09242195	-0.10622788	-0.086646885	-0.10815905	-0.08381183	0.027676277	-0.10409783	-0.06072363	-0.09612152	-0.07538293	-0.09539976	-0.10159392	0.08277617	0.07415828	-0.09848473	0.08902624	0.11427746	-0.11628977	-0.0005861803	0.13314752	0.029838173	-0.014712213	-0.02070424	0.0024485239	0.08645773	0.052951194	-0.07430323	-0.07292843	0.048977546	-0.106982715	0.030953595	-0.004803063	0.1034002	-0.089287	0.10641901	-0.08540205	0.1116279	-0.1088379	-0.038978614	0.06003518	0.06970183	0.1239173	-0.08672629	0.13336895	-0.027960889	0.03495694	-0.056079973	0.05937932	0.035372216	-0.14342695	-0.093293	-0.08994823	-0.10204526	-0.11790991	-0.13399883	0.011999414	0.062103182	-0.10121135	0.10624696	0.05738589	-0.11772856	0.12619403	0.08361726	0.1338006	-0.095347695	0.104666874	-0.1295212	-0.013343498	-0.052940357	0.07295026	0.073828235	0.14764117	0.12341696	0.051335707	0.12711863	0.034570266	-0.05978836	-0.014624839	-0.096187286	-0.12070512	0.048754312	0.080049835	0.06549068	0.095464446	0.09071665	0.059626807	-0.061059095	-0.08973169	-0.07581213	0.096757405	0.082437426	0.13196345	0.08110587	-0.12631686	0.014086788	-0.10904626	0.100164644	0.115792505	-0.07651243	-0.10376594	-0.103600204	0.11832049	-0.09361397	0.03984372	-0.072081186	-0.0788194	-0.11266962	-0.10412163	-0.10570354	-0.08449447	-0.05889052	-0.08947299	-0.009935123	0.050874602	-0.09186229	0.11621228	-0.11792382	0.116843626	-0.037038498	-0.032956563	0.10339847	0.12967321	-0.015103286	0.08071344	-0.11289839	0.080172956
PARP1	0.01151007	0.05788065	-0.08970097	-0.040243704	0.053338144	-0.0483616	-0.055094708	0.026233934	-0.040911317	0.049655054	-0.109465525	-0.006691648	-0.06932392	-0.0031694702	0.06969427	0.041725498	-0.06895694	0.0013901993	0.04628859	-0.012193029	0.13079664	0.14771184	0.14696123	-0.09010371	0.06766501	-0.16797012	0.049239263	0.090877414	-0.06652318	-0.16997676	-0.038598303	-0.10189317	-0.086112656	0.1383946	0.088836595	0.0411483	0.08470173	-0.10151802	0.0046388316	-0.10510995	-0.06313569	0.02990298	0.06376518	0.08100059	-0.03787284	0.08147126	-0.11927016	0.12609401	-0.16901806	0.12073355	0.11978208	-0.04690315	0.016581241	0.0033771603	-0.11176657	-0.08041188	-0.12645058	0.11920544	0.035585884	0.0069655944	0.09503734	0.18298195	-0.115399145	0.0006691667	-0.017427018	0.01613986	-0.13229823	0.140413	-0.063076444	-0.22606641	0.07692386	-0.027274447	0.0622115	0.024322763	0.032442443	0.13276182	0.08091156	0.0412402	0.015334007	-0.08845607	-0.12297123	-0.14778869	0.09569651	-0.011350856	-0.08274871	0.01966601	0.06040778	-0.094683625	0.013092534	0.034461554	0.005231323	0.0517471	0.050754625	0.060966175	0.06277546	-0.08754204	-0.12140606	-0.13076833	0.05615258	0.118964076	-0.19669768	-0.009736055	-0.13116626	0.010081884	0.044391997	0.12771256	-0.0036580025	-0.08339607	-0.005151292	0.0014215582	-0.0832959	-0.059261993	0.1013693	-0.08409626	-0.11721214	0.07431663	0.040853996	0.027864588	-0.10127287	0.078698255	-0.12039718	-0.11061358	-0.033306006	0.07954633	0.19181716	0.014667525	-0.07618763	0.028826408
PHF6	0.15409146	0.06452985	-0.06888531	-0.10825491	-0.08285238	-0.12829182	-0.09859595	0.18827215	-0.06560317	-0.09623835	-0.14397992	-0.12106826	-0.15491395	-0.016233154	0.00916331	0.010012035	-0.024575518	0.1071525	0.10534692	-0.07812467	-0.084832236	0.07224704	0.11427598	-0.008104082	-0.07336763	0.024019344	0.13094032	0.010142184	-0.11092063	-0.041921273	0.1162502	-0.058844328	0.102025084	-0.03292879	0.064191684	-0.030948728	0.101947665	-0.032087013	0.09645512	-0.09281805	0.053540345	0.11137067	0.11529985	0.061422456	-0.0665527	0.08443721	0.050235648	-0.07406017	-0.05269797	0.08380949	0.067431025	-0.101367325	-0.108938664	-0.12437137	-0.113098	-0.034291532	-0.0967005	-0.055817157	0.12225544	-0.09242847	-0.01533695	0.09465214	-0.1215711	0.07402329	0.119491115	0.09713598	0.027537696	0.063586086	-0.090271175	-0.0691871	-0.080076285	0.032175966	0.11475928	0.03506034	0.103232555	0.063002296	0.05737481	0.080254965	-0.124786355	0.0036468606	-0.07031115	-0.07903694	-0.0072707036	0.13923103	0.09676767	0.1280451	0.12628597	0.07623936	-0.13249357	-0.11373573	-0.071731076	0.13931493	-0.022528403	0.08386144	0.087370604	-0.08214281	-0.01912726	-0.11239937	0.12613581	0.07548526	-0.13746694	-0.103690445	-0.09895601	0.040834107	-0.085426986	-0.004141864	-0.07262883	-0.001862691	-0.022971043	-0.11547454	-0.10395046	-0.12918259	-0.06799302	-0.0332529	0.02609953	0.06851559	-0.056798365	0.10319536	-0.10656389	0.07285392	0.025190009	0.039385907	0.019600527	0.07344376	0.04404884	0.072531745	-0.13403279	0.11276635
PPP1CB	-0.15231597	-0.097778425	0.049074028	0.11113586	0.077444114	0.09860367	0.123121314	-0.05046925	0.1265427	0.09243385	0.09657244	0.10913312	0.12166766	0.015102394	-0.04110859	-0.09347183	0.08893969	-0.13500153	-0.050927892	0.12135196	0.07470042	-0.034309268	-0.08644279	-0.011967336	0.010907088	-0.08629915	-0.1057152	-0.04214283	0.13255326	0.024139391	-0.11001068	0.06714112	-0.13398145	0.06954575	-0.07498012	0.0549866	-0.13090834	0.047656354	-0.13078524	0.049365718	-0.06784054	-0.025530545	-0.093162335	-0.10047419	0.057625603	-0.094328254	-0.00011098144	0.020255504	0.03965942	-0.09936025	-0.060689293	0.027627733	0.14290245	0.10166309	0.13610405	0.055980016	0.07322833	0.04063718	-0.102410264	0.13590275	-0.010164857	-0.033359785	0.104071476	-0.1216944	-0.115295686	-0.10788417	-0.005858094	-0.034107015	0.08441362	-0.06599383	0.053237256	-0.031464558	-0.09804732	-0.08228686	-0.08944679	-0.030063838	-0.087162085	-0.05592883	0.1305984	-0.04426192	0.052283026	0.02169342	-0.04505356	-0.12551583	-0.14010361	-0.13976063	-0.13183703	-0.08010628	0.10438062	0.16842234	0.052417267	-0.103226155	-0.037724026	-0.09025526	-0.13872832	0.08838277	-0.011208338	0.04879019	-0.10430388	-0.05077286	0.012560285	0.13033715	0.04777713	-0.102201186	0.0885223	-0.012305302	0.10517038	0.010746595	0.08331508	0.11610705	0.090807416	0.11635583	0.101866364	0.08382763	-0.011880813	-0.10712431	0.12888628	-0.11124946	0.07413854	-0.0608417	-0.021037595	-0.01697258	-0.09543772	-0.090210766	0.10453265	-0.10644299	0.10383845	-0.03719797
PPP1CC	-0.014878147	-0.10638324	0.08746017	0.042840112	-0.031797078	0.0056552244	0.08677895	0.057455964	0.14542614	0.03132079	0.057857145	0.0517834	0.050560575	-0.025630271	-0.08348946	-0.10632516	0.13664645	-0.047769234	0.017312668	0.08403301	-0.119450815	-0.0855937	-0.12506878	0.06340253	-0.17787944	0.018704895	-0.022169895	-0.08522352	0.083638065	0.137869	0.04051559	0.13116051	0.044801824	-0.07401087	-0.11025749	-0.024902051	-0.104196265	0.18328762	-0.05898391	0.036921714	0.07800325	-0.020791769	-0.013920772	-0.19233717	0.052627936	-0.111436546	0.2113141	-0.15113737	0.12360243	-0.13268827	-0.08993014	-0.050126113	0.023355555	-0.00092643825	0.18650877	0.09732741	0.06115588	-0.102336	-0.013981742	0.04253413	-0.09901076	-0.11508857	0.10839972	-0.059343714	0.021000052	-0.07906211	0.12681359	-0.1301805	0.061695833	0.03922011	-0.05642302	0.04741852	-0.030582143	-0.044973876	0.04021088	-0.057700828	-0.07853534	0.08232681	0.04180475	0.035972726	0.112669274	0.06880983	-0.17930429	0.014218509	0.045819227	-0.042002324	-0.049460214	0.09432962	-0.053285938	0.06752099	-0.07463804	-0.016053306	-0.16268599	-0.0766187	-0.052568637	0.083955675	0.060586907	0.08912085	-0.031134851	-0.11468638	0.070922375	0.059487183	0.016106628	-0.11753299	-0.008910825	-0.15285054	0.09866512	0.08776246	0.021700988	0.0246752	0.027437462	0.06955267	-0.033844024	0.079102926	0.11586781	-0.20660907	0.096717395	-0.056750417	0.064545855	-0.011648495	0.12544626	0.1426503	-0.09379507	-0.059921727	-0.018464053	-0.004287526	0.06576017	0.01695765
PRMT1	0.047980055	-0.08727111	0.12225789	-0.0056318208	-0.07407573	0.014733703	0.045573905	0.053336807	0.046667743	0.083261445	0.10275255	-0.11481817	0.08105813	-0.040994182	-0.13245368	-0.084844895	0.08433768	-0.0041837846	-0.04888183	0.022644408	-0.097263426	-0.032492813	-0.10215724	0.1291896	-0.07435294	0.11898214	-0.092406325	-0.1265474	0.07156627	0.10510765	0.062281504	0.11161594	0.07742131	-0.0880085	-0.08469394	-0.025814679	-0.043175418	0.07998639	0.014038364	0.11215589	0.09746439	-0.120876394	-0.11689591	-0.00039064558	0.11116059	-0.047804106	0.018995576	-0.10024295	0.08812553	-0.10525374	-0.15071045	0.084951185	-0.014048597	-0.093922876	-0.002790443	0.11333985	0.09030788	-0.10065786	-0.11134521	0.057409838	-0.14602797	-0.119467884	0.07459427	-0.088422805	-0.021078248	-0.046102613	0.08954284	-0.11614179	0.06481844	0.1627953	-0.10975148	0.063563265	-0.10404936	-0.021450449	-0.051196046	-0.13959086	-0.0736669	-0.16734482	-0.05408023	0.15995525	0.096966386	0.12268892	-0.04244035	-0.00044301443	0.00010509171	-0.011227757	-0.033753704	0.037617147	0.07124938	-0.054315727	-0.09414155	-0.021302488	-0.049476016	-0.024236625	-0.047761373	0.09368939	0.105084166	0.13315742	-0.08411388	-0.09877725	0.09434342	-0.0013572127	0.14659014	0.012260649	0.008197717	-0.1339075	0.070308074	0.15095432	0.045320183	0.0008909693	0.09185084	0.05287172	-0.0052416064	0.11663926	0.10011458	0.013092453	0.024045914	0.027505452	0.06170223	-0.10902506	0.11883371	0.1224368	-0.010672754	-0.07733962	-0.20248348	-0.09311608	0.051157877	-0.15834582
SMARCA4	0.084054925	0.11225462	-0.066125475	0.016986031	-0.018509831	-0.04667161	-0.07544268	0.012093792	0.023428151	-0.07714557	-0.13181293	0.08723539	-0.10016438	0.11147616	0.02211493	0.060586654	-0.103185244	0.13249914	0.15776165	-0.026511187	-0.07704452	-0.04321221	0.011049892	-0.09378545	-0.06481416	-0.035956096	0.1195925	0.09476238	-0.14158137	-0.0011469747	0.056182772	-0.08980151	0.07584564	0.0050127716	0.013635019	-0.019989217	0.07392169	0.048706863	0.0019714439	-0.046415783	0.12169898	0.123619035	0.14270417	-0.06622428	-0.11260866	0.06267279	0.15863526	-0.062488373	0.11565338	0.047229383	0.059421632	-0.12628426	-0.09324035	0.010666984	-0.03300327	-0.043830495	-0.040743988	-0.048142314	0.12374418	-0.10555844	0.07403313	0.016952649	-0.028135441	0.05207127	0.09516363	0.06786213	0.020840708	0.034385033	-0.034754418	-0.03549345	-0.011688662	-0.06503995	0.11331067	0.0018798697	0.13710243	0.09921531	0.021836609	0.17472814	0.02388253	-0.1009267	-0.069929294	0.003275396	-0.13673553	0.12963368	0.20122656	0.061839104	0.11253796	0.059090793	-0.20565242	-0.03295857	-0.0128746675	0.09976338	-0.08636533	-0.022537833	0.16262116	-0.11406264	-0.16007528	-0.045179065	0.1370709	0.04215477	-0.07135041	-0.053297322	-0.13869408	-0.060246453	-0.044652704	-0.0023634913	-0.1570814	-0.04478026	-0.11225831	-0.096520714	-0.104710035	-0.14368477	-0.048209425	-0.06799679	0.05771633	-0.03234075	-0.097281575	0.020281294	-0.09693762	0.08457973	-0.007530602	-0.023865268	-0.003575566	0.045967568	0.056149926	0.18781665	-0.09453453	0.13750145
USP7	0.021700429	0.18420327	-0.07801782	-0.028324027	0.07395918	-0.041782916	-0.05300918	-0.024994941	-0.10286374	0.07341139	-0.12555797	0.04114537	-0.10665601	0.036851194	0.013356438	0.10844216	-0.1411748	-0.007083019	0.066216715	0.025022948	0.124584846	0.045399435	0.09199554	-0.113759905	0.034665123	-0.1676061	0.02877198	0.13685118	-0.064721964	-0.1395078	-0.017262325	-0.08529221	-0.06752037	0.14854681	0.07214327	0.06613221	0.102595165	-0.084720746	0.035254505	-0.05836544	-0.11111659	-0.024225593	0.06990234	-0.020181695	-0.03377945	0.078041114	-0.027478468	0.07754251	-0.115071654	0.09423856	0.16907568	-0.025758015	-0.03442014	0.042830452	-0.047347292	-0.098545305	-0.120611385	0.13654076	0.03532909	-0.10873508	0.104770035	0.08801184	-0.1480647	0.052815843	-0.0032969345	-0.012324952	-0.11635054	0.065870665	-0.092111476	-0.17212899	0.112317845	-0.099357314	0.12607019	-0.0030040103	0.10144935	0.18092817	0.07443309	0.13798901	0.06887561	-0.13962206	-0.09342083	-0.069206715	0.06846169	0.041732617	0.043167446	0.03845846	0.05298453	-0.070839114	-0.07925475	-0.017595407	-0.027170124	0.031550996	0.084175065	0.0018955886	0.106436074	-0.054797936	-0.10832338	-0.11519792	0.09878718	0.07388717	-0.09552295	-0.0086639095	-0.15277374	-0.051407225	0.045344908	0.07504267	-0.041376382	-0.11729919	-0.04149961	-0.01072084	-0.07022818	-0.09837613	0.00844105	-0.108275436	-0.10982329	-0.04295322	0.031926893	0.01341325	-0.08848035	0.13854668	-0.08748472	-0.15486687	-0.10777469	0.09905044	0.08556417	0.07482921	-0.021810073	0.12822099
YWHAB	-0.0572842	0.09010616	0.12097908	0.10962642	0.10741706	0.122021355	0.055258237	-0.05642242	0.08163822	0.09072784	0.058982175	0.055351645	0.08846995	0.12702926	-0.071246594	-0.011517295	0.047585703	-0.08162816	-0.12151721	0.12345273	0.0646329	-0.11724197	-0.02467109	-0.007867486	0.0687466	-0.040121187	-0.08531862	0.015143605	0.03953416	0.0027356797	-0.0783541	0.06438512	-0.047422606	0.039583366	-0.08185579	0.10909876	-0.09511441	0.029388104	-0.1084071	0.12938176	0.037630793	-0.11255116	-0.08671476	-0.103894	0.11883175	-0.10458715	-0.04487196	0.018054962	0.030212553	-0.04840325	0.014479561	0.15654111	0.09796732	0.108502865	0.05143588	0.090471245	0.10951454	0.056954764	-0.07113328	0.08133444	-0.072255425	0.0056958	0.0863503	-0.11146663	-0.1379822	-0.13022992	0.045185573	-0.0908286	0.10106374	0.0011785488	0.06950777	-0.1375786	-0.11057651	-0.13676277	-0.12654774	-0.020992594	-0.09911091	-0.07405281	0.08996278	0.006351981	0.043262184	0.13410033	-0.0014953846	-0.1009188	-0.08716768	-0.080342926	-0.08877537	-0.11055792	0.11773212	0.09543724	0.09205919	-0.12472549	-0.016230185	-0.11461212	-0.066212796	0.112376094	-0.031941067	0.09555133	-0.11900504	-0.08369023	0.09208116	0.12712976	0.08732768	-0.12142802	0.1406828	0.04602452	0.0835173	0.048962273	0.10691079	0.11488772	0.10465941	0.118778154	0.07633588	0.07212104	-0.0775427	-0.0067454334	0.057986844	-0.13407679	0.13457131	-0.11474682	-0.032048862	-0.012155708	-0.06253529	-0.10326637	0.022608524	-0.09330764	0.09605135	-0.08189567
YWHAE	0.038709432	0.039211653	0.18601227	0.04452117	-0.0033372042	0.059863266	0.015257592	0.11949256	0.08342147	-0.02290875	0.029238865	-0.05039606	0.034555834	0.02445467	-0.056396086	-0.06863682	0.08892816	0.009217853	-0.089418486	0.07075815	-0.086537816	-0.10249003	-0.061911076	0.10146723	-0.021131776	0.07017541	-0.01678247	-0.0732266	-0.00835141	0.109327234	0.038318887	0.06393527	0.11136441	-0.08257855	-0.13682619	0.016997004	-0.094766654	0.08485076	-0.03228127	0.14691596	0.16080461	-0.13904397	-0.025818875	-0.05949053	0.12440164	-0.08809924	0.042207465	-0.075421	0.1625944	-0.11969952	-0.026009977	0.05865356	0.06604058	0.0173167	0.02988043	0.12233863	0.10528871	-0.0728252	0.03429819	0.0678794	-0.06129449	0.0010203047	0.0766475	-0.06970688	-0.048649773	-0.067170516	0.17405875	-0.12709647	0.05540189	0.13096957	-0.066048406	-0.04432841	-0.12970507	-0.16351609	-0.113708675	-0.09082413	-0.14605676	-0.047584947	0.027113676	0.14224242	0.08778985	0.09923434	-0.11863956	-0.041123178	-0.06848341	-0.01660958	-0.049975146	0.017645823	0.09814041	0.05825868	0.018707449	-0.064643845	-0.06912892	-0.033764053	-0.09890935	0.11997295	0.048617434	0.111685336	-0.12200192	0.011665394	0.077208064	0.06946633	0.1388535	-0.04663358	0.04609515	0.051680174	0.116182774	0.123658836	0.086176924	0.013476636	0.10813048	0.15016906	-0.1294349	0.104494795	0.05068468	0.13569199	-0.020132395	-0.07898897	0.13679734	-0.15626268	0.06376578	0.13836375	-0.010905322	-0.11732858	-0.06698591	-0.13909508	-0.011135025	-0.07644565
